digraph Tree {
node [shape=box, style="rounded", color="black", fontname=helvetica] ;
edge [fontname=helvetica] ;
0 [label="TAVG <= 37.0\nmse = 146.7\nsamples = 47\nvalue = 42.8"] ;
1 [label="TAVG <= 24.5\nmse = 50.6\nsamples = 28\nvalue = 35.4"] ;
0 -> 1 [labeldistance=2.5, labelangle=45, headlabel="True"] ;
2 [label="temp_1 <= 34.0\nmse = 42.2\nsamples = 6\nvalue = 24.4"] ;
1 -> 2 ;
3 [label="week_Fri <= 0.5\nmse = 8.8\nsamples = 5\nvalue = 26.8"] ;
2 -> 3 ;
4 [label="day <= 25.0\nmse = 2.2\nsamples = 4\nvalue = 28.8"] ;
3 -> 4 ;
5 [label="week_Wed <= 0.5\nmse = 0.7\nsamples = 3\nvalue = 28.0"] ;
4 -> 5 ;
6 [label="temp_2 <= 33.5\nmse = 0.2\nsamples = 2\nvalue = 28.5"] ;
5 -> 6 ;
7 [label="mse = 0.0\nsamples = 1\nvalue = 29.0"] ;
6 -> 7 ;
8 [label="mse = 0.0\nsamples = 1\nvalue = 28.0"] ;
6 -> 8 ;
9 [label="mse = 0.0\nsamples = 1\nvalue = 27.0"] ;
5 -> 9 ;
10 [label="mse = 0.0\nsamples = 1\nvalue = 31.0"] ;
4 -> 10 ;
11 [label="mse = 0.0\nsamples = 1\nvalue = 23.0"] ;
3 -> 11 ;
12 [label="mse = 0.0\nsamples = 1\nvalue = 10.0"] ;
2 -> 12 ;
13 [label="TAVG <= 27.5\nmse = 25.3\nsamples = 22\nvalue = 37.4"] ;
1 -> 13 ;
14 [label="week_Tue <= 0.5\nmse = 8.8\nsamples = 8\nvalue = 33.5"] ;
13 -> 14 ;
15 [label="week_Thu <= 0.5\nmse = 0.7\nsamples = 5\nvalue = 31.1"] ;
14 -> 15 ;
16 [label="temp_2 <= 44.5\nmse = 0.1\nsamples = 4\nvalue = 30.8"] ;
15 -> 16 ;
17 [label="mse = 0.0\nsamples = 3\nvalue = 31.0"] ;
16 -> 17 ;
18 [label="mse = 0.0\nsamples = 1\nvalue = 30.0"] ;
16 -> 18 ;
19 [label="mse = 0.0\nsamples = 1\nvalue = 33.0"] ;
15 -> 19 ;
20 [label="temp_1 <= 38.5\nmse = 6.5\nsamples = 3\nvalue = 35.6"] ;
14 -> 20 ;
21 [label="day <= 15.5\nmse = 3.9\nsamples = 2\nvalue = 36.3"] ;
20 -> 21 ;
22 [label="mse = 0.0\nsamples = 1\nvalue = 38.0"] ;
21 -> 22 ;
23 [label="mse = 0.0\nsamples = 1\nvalue = 34.0"] ;
21 -> 23 ;
24 [label="mse = 0.0\nsamples = 1\nvalue = 31.0"] ;
20 -> 24 ;
25 [label="temp_1 <= 39.0\nmse = 19.1\nsamples = 14\nvalue = 40.1"] ;
13 -> 25 ;
26 [label="temp_2 <= 48.0\nmse = 24.2\nsamples = 5\nvalue = 43.3"] ;
25 -> 26 ;
27 [label="week_Tue <= 0.5\nmse = 9.2\nsamples = 4\nvalue = 44.8"] ;
26 -> 27 ;
28 [label="week_Wed <= 0.5\nmse = 0.2\nsamples = 2\nvalue = 47.5"] ;
27 -> 28 ;
29 [label="mse = 0.0\nsamples = 1\nvalue = 47.0"] ;
28 -> 29 ;
30 [label="mse = 0.0\nsamples = 1\nvalue = 48.0"] ;
28 -> 30 ;
31 [label="day <= 11.5\nmse = 3.0\nsamples = 2\nvalue = 42.0"] ;
27 -> 31 ;
32 [label="mse = 0.0\nsamples = 1\nvalue = 43.0"] ;
31 -> 32 ;
33 [label="mse = 0.0\nsamples = 1\nvalue = 39.0"] ;
31 -> 33 ;
34 [label="mse = 0.0\nsamples = 1\nvalue = 32.0"] ;
26 -> 34 ;
35 [label="TAVG <= 34.0\nmse = 3.2\nsamples = 9\nvalue = 37.8"] ;
25 -> 35 ;
36 [label="temp_2 <= 49.5\nmse = 1.7\nsamples = 5\nvalue = 36.6"] ;
35 -> 36 ;
37 [label="day <= 24.0\nmse = 0.2\nsamples = 3\nvalue = 37.5"] ;
36 -> 37 ;
38 [label="mse = 0.0\nsamples = 2\nvalue = 37.0"] ;
37 -> 38 ;
39 [label="mse = 0.0\nsamples = 1\nvalue = 38.0"] ;
37 -> 39 ;
40 [label="temp_1 <= 45.5\nmse = 0.9\nsamples = 2\nvalue = 35.3"] ;
36 -> 40 ;
41 [label="mse = 0.0\nsamples = 1\nvalue = 36.0"] ;
40 -> 41 ;
42 [label="mse = 0.0\nsamples = 1\nvalue = 34.0"] ;
40 -> 42 ;
43 [label="day <= 18.5\nmse = 0.9\nsamples = 4\nvalue = 39.3"] ;
35 -> 43 ;
44 [label="mse = 0.0\nsamples = 3\nvalue = 40.0"] ;
43 -> 44 ;
45 [label="mse = 0.0\nsamples = 1\nvalue = 38.0"] ;
43 -> 45 ;
46 [label="TAVG <= 44.0\nmse = 73.0\nsamples = 19\nvalue = 54.5"] ;
0 -> 46 [labeldistance=2.5, labelangle=-45, headlabel="False"] ;
47 [label="temp_2 <= 45.5\nmse = 10.0\nsamples = 13\nvalue = 48.6"] ;
46 -> 47 ;
48 [label="temp_1 <= 43.5\nmse = 4.5\nsamples = 5\nvalue = 51.4"] ;
47 -> 48 ;
49 [label="temp_1 <= 40.5\nmse = 1.4\nsamples = 3\nvalue = 52.6"] ;
48 -> 49 ;
50 [label="day <= 14.5\nmse = 0.2\nsamples = 2\nvalue = 51.7"] ;
49 -> 50 ;
51 [label="mse = 0.0\nsamples = 1\nvalue = 51.0"] ;
50 -> 51 ;
52 [label="mse = 0.0\nsamples = 1\nvalue = 52.0"] ;
50 -> 52 ;
53 [label="mse = 0.0\nsamples = 1\nvalue = 54.0"] ;
49 -> 53 ;
54 [label="TAVG <= 41.5\nmse = 0.2\nsamples = 2\nvalue = 48.5"] ;
48 -> 54 ;
55 [label="mse = 0.0\nsamples = 1\nvalue = 48.0"] ;
54 -> 55 ;
56 [label="mse = 0.0\nsamples = 1\nvalue = 49.0"] ;
54 -> 56 ;
57 [label="week_Tue <= 0.5\nmse = 5.2\nsamples = 8\nvalue = 46.8"] ;
47 -> 57 ;
58 [label="day <= 22.5\nmse = 1.6\nsamples = 7\nvalue = 46.2"] ;
57 -> 58 ;
59 [label="day <= 5.5\nmse = 1.3\nsamples = 5\nvalue = 45.7"] ;
58 -> 59 ;
60 [label="TAVG <= 41.5\nmse = 0.2\nsamples = 3\nvalue = 46.4"] ;
59 -> 60 ;
61 [label="mse = 0.0\nsamples = 2\nvalue = 46.0"] ;
60 -> 61 ;
62 [label="mse = 0.0\nsamples = 1\nvalue = 47.0"] ;
60 -> 62 ;
63 [label="mse = 0.0\nsamples = 2\nvalue = 44.0"] ;
59 -> 63 ;
64 [label="day <= 23.5\nmse = 0.2\nsamples = 2\nvalue = 47.3"] ;
58 -> 64 ;
65 [label="mse = 0.0\nsamples = 1\nvalue = 48.0"] ;
64 -> 65 ;
66 [label="mse = 0.0\nsamples = 1\nvalue = 47.0"] ;
64 -> 66 ;
67 [label="mse = 0.0\nsamples = 1\nvalue = 53.0"] ;
57 -> 67 ;
68 [label="TAVG <= 56.5\nmse = 9.6\nsamples = 6\nvalue = 65.2"] ;
46 -> 68 ;
69 [label="day <= 15.5\nmse = 4.8\nsamples = 5\nvalue = 64.0"] ;
68 -> 69 ;
70 [label="week_Mon <= 0.5\nmse = 1.3\nsamples = 4\nvalue = 64.7"] ;
69 -> 70 ;
71 [label="temp_1 <= 65.0\nmse = 0.2\nsamples = 3\nvalue = 65.4"] ;
70 -> 71 ;
72 [label="mse = 0.0\nsamples = 2\nvalue = 65.0"] ;
71 -> 72 ;
73 [label="mse = 0.0\nsamples = 1\nvalue = 66.0"] ;
71 -> 73 ;
74 [label="mse = 0.0\nsamples = 1\nvalue = 63.0"] ;
70 -> 74 ;
75 [label="mse = 0.0\nsamples = 1\nvalue = 59.0"] ;
69 -> 75 ;
76 [label="mse = 0.0\nsamples = 1\nvalue = 70.0"] ;
68 -> 76 ;
}